digraph Tree {
node [shape=box, style="filled, rounded", color="black", fontname=helvetica] ;
edge [fontname=helvetica] ;
0 [label="X[7] <= 0.051\ngini = 0.476\nsamples = 426\nvalue = [260, 166]", fillcolor="#f6d1b7"] ;
1 [label="X[20] <= 16.83\ngini = 0.121\nsamples = 262\nvalue = [245, 17]", fillcolor="#e78a47"] ;
0 -> 1 [labeldistance=2.5, labelangle=45, headlabel="True"] ;
2 [label="X[10] <= 0.626\ngini = 0.04\nsamples = 244\nvalue = [239, 5]", fillcolor="#e6843d"] ;
1 -> 2 ;
3 [label="X[7] <= 0.049\ngini = 0.025\nsamples = 241\nvalue = [238, 3]", fillcolor="#e5833b"] ;
2 -> 3 ;
4 [label="X[14] <= 0.003\ngini = 0.017\nsamples = 238\nvalue = [236, 2]", fillcolor="#e5823b"] ;
3 -> 4 ;
5 [label="X[26] <= 0.195\ngini = 0.375\nsamples = 4\nvalue = [3, 1]", fillcolor="#eeab7b"] ;
4 -> 5 ;
6 [label="gini = 0.0\nsamples = 3\nvalue = [3, 0]", fillcolor="#e58139"] ;
5 -> 6 ;
7 [label="gini = 0.0\nsamples = 1\nvalue = [0, 1]", fillcolor="#399de5"] ;
5 -> 7 ;
8 [label="X[21] <= 33.35\ngini = 0.009\nsamples = 234\nvalue = [233, 1]", fillcolor="#e5823a"] ;
4 -> 8 ;
9 [label="gini = 0.0\nsamples = 219\nvalue = [219, 0]", fillcolor="#e58139"] ;
8 -> 9 ;
10 [label="X[21] <= 33.56\ngini = 0.124\nsamples = 15\nvalue = [14, 1]", fillcolor="#e78a47"] ;
8 -> 10 ;
11 [label="gini = 0.0\nsamples = 1\nvalue = [0, 1]", fillcolor="#399de5"] ;
10 -> 11 ;
12 [label="gini = 0.0\nsamples = 14\nvalue = [14, 0]", fillcolor="#e58139"] ;
10 -> 12 ;
13 [label="X[13] <= 30.355\ngini = 0.444\nsamples = 3\nvalue = [2, 1]", fillcolor="#f2c09c"] ;
3 -> 13 ;
14 [label="gini = 0.0\nsamples = 2\nvalue = [2, 0]", fillcolor="#e58139"] ;
13 -> 14 ;
15 [label="gini = 0.0\nsamples = 1\nvalue = [0, 1]", fillcolor="#399de5"] ;
13 -> 15 ;
16 [label="X[6] <= 0.029\ngini = 0.444\nsamples = 3\nvalue = [1, 2]", fillcolor="#9ccef2"] ;
2 -> 16 ;
17 [label="gini = 0.0\nsamples = 2\nvalue = [0, 2]", fillcolor="#399de5"] ;
16 -> 17 ;
18 [label="gini = 0.0\nsamples = 1\nvalue = [1, 0]", fillcolor="#e58139"] ;
16 -> 18 ;
19 [label="X[1] <= 16.19\ngini = 0.444\nsamples = 18\nvalue = [6, 12]", fillcolor="#9ccef2"] ;
1 -> 19 ;
20 [label="gini = 0.0\nsamples = 4\nvalue = [4, 0]", fillcolor="#e58139"] ;
19 -> 20 ;
21 [label="X[17] <= 0.01\ngini = 0.245\nsamples = 14\nvalue = [2, 12]", fillcolor="#5aade9"] ;
19 -> 21 ;
22 [label="gini = 0.0\nsamples = 12\nvalue = [0, 12]", fillcolor="#399de5"] ;
21 -> 22 ;
23 [label="gini = 0.0\nsamples = 2\nvalue = [2, 0]", fillcolor="#e58139"] ;
21 -> 23 ;
24 [label="X[26] <= 0.216\ngini = 0.166\nsamples = 164\nvalue = [15, 149]", fillcolor="#4da7e8"] ;
0 -> 24 [labeldistance=2.5, labelangle=-45, headlabel="False"] ;
25 [label="X[24] <= 0.112\ngini = 0.18\nsamples = 10\nvalue = [9, 1]", fillcolor="#e88f4f"] ;
24 -> 25 ;
26 [label="gini = 0.0\nsamples = 1\nvalue = [0, 1]", fillcolor="#399de5"] ;
25 -> 26 ;
27 [label="gini = 0.0\nsamples = 9\nvalue = [9, 0]", fillcolor="#e58139"] ;
25 -> 27 ;
28 [label="X[22] <= 90.035\ngini = 0.075\nsamples = 154\nvalue = [6, 148]", fillcolor="#41a1e6"] ;
24 -> 28 ;
29 [label="X[8] <= 0.193\ngini = 0.32\nsamples = 5\nvalue = [4, 1]", fillcolor="#eca06a"] ;
28 -> 29 ;
30 [label="gini = 0.0\nsamples = 1\nvalue = [0, 1]", fillcolor="#399de5"] ;
29 -> 30 ;
31 [label="gini = 0.0\nsamples = 4\nvalue = [4, 0]", fillcolor="#e58139"] ;
29 -> 31 ;
32 [label="X[21] <= 18.405\ngini = 0.026\nsamples = 149\nvalue = [2, 147]", fillcolor="#3c9ee5"] ;
28 -> 32 ;
33 [label="X[2] <= 100.36\ngini = 0.48\nsamples = 5\nvalue = [2, 3]", fillcolor="#bddef6"] ;
32 -> 33 ;
34 [label="gini = 0.0\nsamples = 2\nvalue = [2, 0]", fillcolor="#e58139"] ;
33 -> 34 ;
35 [label="gini = 0.0\nsamples = 3\nvalue = [0, 3]", fillcolor="#399de5"] ;
33 -> 35 ;
36 [label="gini = 0.0\nsamples = 144\nvalue = [0, 144]", fillcolor="#399de5"] ;
32 -> 36 ;
}